{
    "float_features": [
        [
            0.015471375547349453,
            0.20300938189029694,
            -1.3055355548858643,
            -0.7300364971160889,
            0.06900127977132797,
            0.5859290957450867,
            1.3041515350341797,
            -0.6238508820533752,
            1.4023090600967407,
            -1.16234290599823,
            -0.19111162424087524,
            0.8572622537612915,
            -0.2385675013065338
        ],
        [
            1.1390568017959595,
            -2.0782198905944824,
            -1.6261157989501953,
            -1.472241759300232,
            0.012050889432430267,
            -1.8349215984344482,
            1.9130446910858154,
            -0.5165563225746155,
            -1.3125498294830322,
            -1.6539082527160645,
            0.1867174506187439,
            -0.3760676383972168,
            0.42102983593940735
        ]
    ],
    "id_list_features.lengths": [
        1,
        1,
        1,
        1,
        1,
        1,
        1,
        1,
        1,
        1,
        1,
        1,
        1,
        1,
        1,
        1,
        1,
        1,
        1,
        1,
        1,
        1,
        1,
        1,
        1,
        1,
        1,
        1,
        1,
        1,
        1,
        1,
        1,
        1,
        1,
        1,
        1,
        1,
        1,
        1,
        1,
        1,
        1,
        1,
        1,
        1,
        1,
        1,
        1,
        1,
        1,
        1
    ],
    "id_list_features.values": [
        45821459,
        29807,
        12033,
        3092,
        4119,
        2,
        6527,
        194,
        34,
        8190138,
        397269,
        204955,
        4,
        914,
        3472,
        45,
        3,
        809,
        1,
        3026630,
        9850984,
        14193736,
        4706,
        7013,
        71,
        6,
        99,
        555,
        5694,
        2608,
        46,
        77,
        1,
        1,
        373,
        935,
        12,
        12,
        20073534,
        26813373,
        478696,
        1519603,
        36774469,
        4455968,
        10594,
        383035,
        7647,
        10260,
        4,
        9,
        6,
        11
    ]
}
